250.0 0.891243369584 1.7329664691 -2.35168014234 -7.17171375164 4.73931920147 7.18627675953 0.433850055915 1.25758542991 -15.9371761945 -21.6553744032 143.345276538 31.4001815679 -64.8567118138 -1.73628837491 3.63089111755 -382.247691421 43990.6203837 560.188484087 -1140.91735817 -278.719035771 5044.36769659
270.0 0.967820459753 0.461537290942 -1.29984627607 -1.88915074935 2.66703697706 1.93085605129 0.134195814307 0.705091168492 -4.84430322321 -12.7647680201 43.9556727499 9.02891069601 -18.4995176226 -0.497731132308 1.0293728056 -214.348894289 12714.2931045 152.223389844 -310.917437308 -82.0537392827 1479.53643605
290.0 0.9766900242 0.15607157809 -0.766521036247 -0.631263279964 1.58343419358 0.657408441753 0.0565474271449 0.464873258986 -1.98305314724 -8.29296306331 17.914946699 3.36519224797 -6.83900862983 -0.196385007902 0.388136363736 -138.874886749 5032.0919876 55.7731433696 -114.45634157 -33.4851141396 596.257879949
310.0 0.98466181399 0.0709916144226 -0.52224726631 -0.298479066815 1.0909022397 0.306110654775 0.0312016005642 0.346498338196 -1.10463780456 -6.13117955528 9.65515697329 1.6499372937 -3.42490768958 -0.0966257290036 0.195098300494 -103.786497633 2709.5441289 28.0815104168 -58.1164015552 -18.6829596122 326.337997802
330.0 0.995231092694 0.0368771479315 -0.377867121871 -0.153425424536 0.801136082552 0.163794625799 0.0200002227055 0.277872774277 -0.670274353395 -4.74413037136 5.74627854471 0.91157158047 -1.92586288959 -0.0552662012122 0.114084081197 -80.8228390933 1597.06377171 15.593304393 -32.9680736274 -11.4340254564 195.517193294
350.0 1.02031482602 0.0177769095931 -0.260704890314 -0.0820585789474 0.599744587123 0.090066983283 0.0113919250844 0.207807791195 -0.378277323594 -3.58724518012 3.22023997791 0.47130430096 -1.0751793848 -0.0276062290078 0.0630385688779 -56.444973383 814.595384916 7.49201063636 -16.9711862968 -5.98419541044 101.750265551
370.0 1.01089950245 0.0112927269836 -0.195524789177 -0.0511072211506 0.479461405607 0.0591605804266 0.00906035930233 0.17177674703 -0.277435888023 -2.87702330385 2.2122998731 0.309928575095 -0.725192964967 -0.0220953756752 0.0442844685105 -44.9506578253 547.736156426 4.96640178569 -11.2773561659 -4.41495889849 69.5643064852
390.0 1.00081923762 0.0103030934995 -0.169044638155 -0.0454823421873 0.40850161477 0.044831158252 0.00999541375847 0.165055244137 -0.266403078037 -2.4619087813 1.88566597983 0.279766038067 -0.554567947034 -0.0185532103844 0.0400850941827 -37.7993639552 460.401915346 4.29799238068 -8.81370531526 -4.24669623689 58.9023922995
410.0 0.996759898958 0.010532574666 -0.155258648177 -0.0376629510621 0.360984551146 0.0364326576322 0.0120931396096 0.168341059109 -0.282551103053 -2.19887353473 1.78368906277 0.261921176122 -0.479261632096 -0.0207586548841 0.0383161027481 -33.431931961 439.305966475 4.23833512017 -7.57488651516 -4.5344836425 56.2865421888
430.0 0.995413533426 0.0109278650576 -0.146020613757 -0.0383002676754 0.328217241927 0.0310723125665 0.0141850627852 0.173675998599 -0.310009393562 -2.01958943515 1.79492773755 0.279197568373 -0.449539873306 -0.0245508584278 0.0383346383592 -29.8408272301 442.082008216 4.36826642594 -6.73088778474 -4.95176698682 56.511028825
450.0 0.995048979502 0.0120748086458 -0.143838689885 -0.0366156814548 0.299972674411 0.0267983264991 0.0172397225089 0.186012852384 -0.355528866847 -1.85476582512 1.88207352312 0.285468076639 -0.419757868421 -0.0281440879208 0.0403379039826 -26.8199027402 461.265966247 4.60809358548 -6.12678357583 -5.44573002004 58.68425928
470.0 0.984795399998 0.0130669227136 -0.143223325161 -0.0315096284204 0.274279015733 0.0232038463299 0.0195795688309 0.192760025697 -0.382347340568 -1.68922382853 1.96647121026 0.307723619177 -0.365740557395 -0.0312061785441 0.0397043621016 -24.0931580607 492.713640316 4.91474638662 -5.65980379397 -5.98766282723 62.2887355322
490.0 0.991714988138 0.0140696991025 -0.144267111067 -0.0316692935508 0.257833031624 0.0207361246913 0.0225272426137 0.203946400511 -0.411398674895 -1.57361338958 2.08946103364 0.329245401856 -0.35927139316 -0.0357720190868 0.0423508929596 -21.9660256954 543.090893175 5.34525773473 -5.37521111245 -6.65928742295 68.166116621
510.0 0.985718910214 0.0151192600908 -0.145585560858 -0.0226812810003 0.241608043765 0.0185602733648 0.0259781064325 0.217962647422 -0.450692033729 -1.42871623158 2.28897886337 0.354463805637 -0.334779712856 -0.040861168039 0.0412672433164 -18.6081951778 567.223072677 5.45632785507 -4.81905552494 -6.91206060718 70.6450955154
530.0 0.987350039403 0.0167038418251 -0.150786591334 -0.0174005187935 0.22688320624 0.0167377008652 0.0296052969602 0.231686419049 -0.500614446229 -1.28710596721 2.4346188435 0.393242536626 -0.312930987285 -0.0456410835726 0.0425638750428 -17.0802344665 652.36317563 6.08514074187 -4.75828195849 -7.80476192097 80.6098475104
550.0 0.979160512029 0.0175270266348 -0.151669779317 -0.0394990053405 0.212782348429 0.0149895980715 0.0325582081647 0.240935494132 -0.535605162207 -1.1968801048 2.68596787904 0.414791039897 -0.319930931028 -0.0483316768697 0.0415854683305 -14.096425648 690.802162024 6.20554474726 -4.31809646932 -8.03414945221 84.681551626
570.0 0.978510415824 0.019813112447 -0.161224191486 -0.027824919224 0.201356751591 0.0138295190064 0.0366464405636 0.25533185242 -0.564770176345 -1.05594641653 2.98165777853 0.433135289149 -0.266986872352 -0.0519371422765 0.0396916694316 -12.3894394819 805.867939032 6.94118191572 -4.31645365477 -9.04720846768 98.0131733211
590.0 0.981889446505 0.0209853986164 -0.162218785131 -0.0241841396172 0.195469028957 0.0128303184957 0.0409802125717 0.265358245286 -0.625336373048 -0.93119971729 3.25675213896 0.472683688123 -0.299176755615 -0.0581829333158 0.0413798940607 -9.49038744813 857.560337042 7.04946721036 -3.93477845067 -9.23286768356 103.504456408
610.0 1.00387445565 0.0233929536452 -0.174610607648 -0.021965965062 0.186158609055 0.0115611707218 0.0464792882874 0.287604699856 -0.679505667814 -0.856426055442 3.61052576072 0.505134095471 -0.300725258497 -0.0696797687086 0.0409498770638 -7.8310420527 1039.63878557 8.11116122471 -4.08835413746 -10.6629291143 124.555298938
630.0 0.994389451244 0.0247717783998 -0.176427188731 -0.014803020183 0.177059436608 0.0106992969843 0.0513671116533 0.303414108113 -0.703942570066 -0.74750027651 4.04194405385 0.542750556033 -0.257260275867 -0.0707343461309 0.0474089015919 -5.07638486725 1134.39854452 8.38985601528 -3.82892260402 -11.0524065542 134.95930437
650.0 0.969571370547 0.0269202619459 -0.181562570746 -0.0287779153633 0.165505047122 0.0100575900659 0.0551182555992 0.303051543803 -0.745139853662 -0.549366617381 4.26456954426 0.552085557865 -0.229345428987 -0.0794373359579 0.0442523054886 -2.4058567971 1232.09487773 8.60825653512 -3.57169458403 -11.3543496816 145.607567528
670.0 0.982342899296 0.0288908255191 -0.191126343658 -0.0425673671682 0.162396368139 0.00950389356983 0.061506406328 0.326674847268 -0.788411951692 -0.483131659244 4.80965623504 0.599228479953 -0.269492800692 -0.0791635532162 0.0457310840451 0.409555248722 1365.76171138 9.00040699909 -3.39200938568 -11.8707542959 160.373851289
690.0 0.980883838171 0.0312411219349 -0.193003164357 -0.0153597410629 0.153841763608 0.00897988996752 0.0658129987604 0.332878115748 -0.841173251716 -0.366236414818 5.21882031277 0.647463565197 -0.282772536172 -0.0877462956479 0.0489643362735 3.04560105874 1512.66980843 9.37233881423 -3.23047580624 -12.3579962529 176.572290815
710.0 0.965362210331 0.0316986770446 -0.193269480811 -0.00879267217042 0.148822301734 0.00851441265946 0.0685006861399 0.33092223775 -0.814634659792 -0.0421573525117 5.59635880545 0.634648669807 -0.201397022801 -0.0932280631739 0.0326296608472 5.65901600795 1668.32124051 9.68095259733 -3.05777390997 -12.7563153243 193.623660797
730.0 0.97474873193 0.0351316944869 -0.199555082451 -0.0277702280926 0.1417987997 0.00755095950281 0.0753031367232 0.344676094454 -0.895170020457 0.0277623034067 6.35745289167 0.683091853136 -0.201649787737 -0.110884532676 0.0446644499094 9.04243539289 1890.69517175 10.3219518273 -2.97582440079 -13.5647072017 218.302947421
750.0 0.965425281342 0.0376817292842 -0.211763779689 -0.0117985116523 0.135986769738 0.00736500948711 0.083382661735 0.368167602262 -0.968684877259 0.0684138302401 7.11305359605 0.705947670116 -0.224892302729 -0.106903192076 0.0552454623471 12.0555264749 2096.67988572 10.7141031194 -2.8364220952 -14.0479630886 240.892720378
770.0 0.984575962409 0.0378929312292 -0.211085334351 -0.0106073151416 0.134347078347 0.00676141479244 0.0873308988605 0.368955220235 -1.00996996684 0.254095719504 7.7262330106 0.774803916155 -0.296047663823 -0.121280493652 0.0416820041357 14.6133172858 2228.05317171 10.6455399545 -2.58795127764 -13.9165452304 254.818475597
790.0 0.988662885909 0.0412206301108 -0.211009551644 -0.0363933504801 0.130340750555 0.00700952061738 0.0942497073859 0.372208582651 -1.04233785607 0.566330380775 8.18123572028 0.735364947115 -0.0559243542744 -0.126270240031 0.0507566187429 17.9734658784 2487.14234259 11.1016561518 -2.47827541816 -14.4601144942 283.228982228
810.0 0.983441554999 0.0426032183117 -0.216095848364 -0.0250448523279 0.126279940087 0.00609203567781 0.0980166679607 0.391245562714 -0.973624779307 0.789139800767 9.21180054852 0.791770071974 -0.109534277821 -0.127287278346 0.0617766451195 22.2338860566 2853.65086913 11.8923316291 -2.43479792845 -15.4218748034 323.705235462
830.0 0.974445608102 0.0459770772806 -0.220411889881 -0.0558506871962 0.118853192454 0.00604488952755 0.106637307277 0.406913392756 -1.04535075288 0.894462924089 10.133578503 0.737393313853 -0.116293480233 -0.137328750481 0.0543935815994 24.683314629 3025.42540255 11.7438268315 -2.21225434398 -15.1621976251 341.90774988
850.0 0.950974031758 0.047820862634 -0.225950160847 -0.0395825193434 0.107951148359 0.0047087935187 0.107987368759 0.389326700894 -1.072469962 0.992843670585 10.6976510632 0.826382847841 -0.209627665691 -0.145588786166 0.0402966863233 28.2653931025 3329.96868072 12.0376309746 -2.07953202009 -15.4577263063 375.036409913
870.0 0.99324116345 0.051185432468 -0.237092120131 -0.0414157945573 0.122917648283 0.00558201794783 0.118802356287 0.422924176447 -1.17256782936 1.2564492593 12.265886141 0.877602075244 -0.076552242106 -0.147591926129 0.0590301993348 30.9239321203 3529.34320639 11.8839097127 -1.87898618536 -15.165819987 396.294199473
890.0 0.972881554428 0.0539722158608 -0.234502902145 -0.0373997186534 0.104983294 0.00472011725389 0.126780652692 0.416914597064 -1.16408759045 1.24466678926 12.7116176278 0.873457390453 -0.239607431877 -0.167821529055 0.0405060953519 36.2616979101 4092.37987219 12.7777162063 -1.85391451178 -16.2084504717 458.151647191
910.0 0.988337111405 0.0590843161971 -0.260178882753 -0.00736509987106 0.0953136708295 0.00411773977806 0.131483826208 0.426210982466 -1.12247409956 1.74022780242 14.0051866359 0.838452251151 0.0297249481476 -0.184324053272 0.0549066448603 37.9467481315 4234.5873517 12.246433819 -1.61910574758 -15.420891334 472.743081267
930.0 0.954395899685 0.0577964529816 -0.234584978566 -0.0432474934948 0.0973583374627 0.00467425173475 0.136935832422 0.434690027874 -0.990306859443 2.14354039691 14.7652043328 0.753748672218 -0.110973619881 -0.180758083128 0.0453815082056 42.1342096829 4660.04472487 12.4847821646 -1.49692994714 -15.5895655672 519.029890034
950.0 0.983121020049 0.067102150922 -0.270341467638 -0.0847869226606 0.0817272593159 0.00321048367658 0.146826705565 0.447059229167 -1.20975631445 2.20136168082 16.7396111937 0.890524199246 -0.0423267790449 -0.219209119047 0.0651300865914 47.7472641137 5341.18549267 13.1660311421 -1.4368287471 -16.3108460151 593.331127844
970.0 0.943124752226 0.0672797078245 -0.243905228578 -0.052075279046 0.0868503454868 0.00339922034671 0.156329857357 0.488046483662 -1.2247436663 1.82700649671 17.8622817572 0.970176321581 -0.0881585759833 -0.187765445506 0.0758981903418 53.3642684646 5871.86044788 13.5103066335 -1.31824262457 -16.5507585973 651.368354417
990.0 1.0138103431 0.073040230698 -0.269070082897 -0.0312211542996 0.085698986227 0.00280380965693 0.166878657313 0.468997959219 -1.24788738706 2.36348082599 20.1486534091 1.01483235466 -0.016986386715 -0.234186063047 0.0552647661131 58.3045567282 6471.9983776 13.7165677541 -1.19639543204 -16.6243423369 716.535455115
1010.0 0.984806171754 0.0697335769202 -0.269886564088 -0.0850797053787 0.0943223422929 0.00344694023749 0.171263359998 0.459629119539 -1.10296289196 3.24468214148 20.5901666672 0.791218635175 0.0968316479436 -0.234777424653 0.0643990693393 54.1295696914 6087.57697187 11.8383149722 -0.912867668783 -14.1766372084 672.677368754
1030.0 0.979066028207 0.0719899874238 -0.252874081179 -0.00408092724801 0.0950319507015 0.00364058363062 0.174155595944 0.490243091128 -1.21150501069 2.59918507423 22.8757604559 0.865028959045 -0.461398696186 -0.221103624816 0.0578133802851 61.9474295818 7077.93249156 12.6190740267 -0.851202822242 -14.9145261327 780.730208548
0.992652175833 0.0236062036428 -0.201518673732 -0.068558440664 0.385872898662 0.0648165003344 0.0277950718495 0.226535909757 -0.506589981683 -2.12463049612 3.92349636854 0.520249328466 -0.789027573599 -0.0481140193057 0.0604592832381 -31.22783335 1083.68344927 8.31836177423 -12.6761233883 -7.93244406495 129.887527593 